-0.279106 
-0.703472 
0.534638 
-0.301166 
-0.799220 
0.701859 
-1.325427 
-0.550967 
-1.528685 
-2.215388 
-0.233001 
1.564922 
0.853906 
-1.200753 
-0.343487 
-1.216772 
0.729869 
-0.419950 
-1.177679 
-0.516816 
-0.692248 
1.385244 
1.251721 
-0.345629 
-0.541332 
-0.883465 
-3.348583 
0.341361 
1.386761 
0.113448 
1.790945 
-0.905153 
1.762983 
-1.180528 
0.963342 
-1.418902 
0.014363 
0.486128 
-1.035300 
-1.437327 
-0.267399 
-0.748406 
1.638763 
-0.465853 
-1.151788 
0.764996 
-0.265786 
0.448201 
-0.249883 
-1.129758 
-1.712013 
-0.724131 
-0.638896 
-1.236846 
-1.003653 
-0.627866 
-1.558426 
1.482303 
-0.936684 
0.217885 
0.766163 
1.161555 
-0.470739 
-0.286082 
-0.353029 
-1.093914 
-0.331668 
-1.348945 
-0.212136 
1.677416 
-1.056437 
-0.978464 
0.917920 
-1.093097 
-0.865509 
-0.707099 
-1.125004 
-0.687651 
-0.518054 
-0.464822 
0.199309 
-0.194313 
0.574198 
-0.124614 
-0.476668 
-1.195625 
-1.160798 
-1.875175 
-1.357550 
-0.506194 
0.802985 
-3.135556 
-0.019706 
-0.767425 
0.831846 
-1.406312 
-0.315187 
0.176380 
1.215014 
-0.823888 
-2.002262 
0.768807 
-2.082290 
-1.185520 
1.379120 
-1.077665 
-0.539046 
-0.528626 
-2.563931 
-1.306648 
0.710222 
0.302742 
0.096902 
-0.569138 
-0.800453 
0.930477 
-0.175710 
1.624386 
1.049294 
-1.251093 
-0.983187 
1.836813 
0.945799 
-0.793370 
-0.813791 
-0.113216 
-1.231048 
-1.051806 
0.058687 
0.126047 
2.089104 
1.120101 
-1.130328 
0.418124 
-0.504855 
-0.682734 
0.655069 
-0.731546 
-0.607990 
0.649277 
1.220484 
-0.426054 
-1.203124 
-0.481273 
-0.438236 
1.109068 
-0.421448 
-1.059755 
-0.678487 
-1.497813 
-0.442903 
-0.234872 
0.615334 
-0.614048 
-0.910241 
-0.447401 
0.084837 
-0.301196 
-0.841116 
-0.532854 
-1.393140 
-0.582280 
-1.077376 
0.093804 
-1.857169 
-1.439429 
2.514974 
-0.201800 
0.233211 
-0.703912 
1.984637 
-0.453298 
0.328942 
-3.075355 
1.618170 
1.255715 
-0.293793 
0.980411 
-0.013166 
1.004024 
-1.053544 
-0.890405 
0.271014 
1.089911 
-1.194585 
-0.939123 
-0.697528 
-1.083303 
0.656254 
-0.969049 
-3.388937 
-0.416964 
0.625954 
-2.594173 
-0.862069 
0.690066 
0.253865 
-1.272297 
-0.666090 
1.740082 
-0.779523 
0.072815 
-1.432863 
-0.553848 
0.340515 
1.319977 
-0.462218 
-0.845523 
0.162551 
-1.217872 
-0.709056 
0.663439 
-0.781231 
0.731405 
-1.310925 
0.913630 
-1.112060 
0.071396 
1.621132 
-0.269627 
-0.973216 
-0.644750 
-1.467278 
-0.907123 
-1.598810 
0.108772 
-0.757927 
0.554723 
1.334712 
-0.566880 
-0.231853 
-1.232161 
-0.070029 
0.449761 
0.078509 
-1.004370 
-1.232664 
-0.770846 
-1.477802 
-0.396412 
-0.821329 
-0.112487 
0.499020 
-0.835461 
0.480838 
-1.744700 
-1.356086 
-0.164899 
0.405714 
-0.331956 
0.813361 
0.174747 
-1.441454 
-0.760419 
1.372918 
-2.543949 
-1.093933 
-1.475976 
-0.542022 
-1.019789 
1.945620 
0.134615 
-0.592340 
0.395068 
-0.503598 
-1.130856 
0.658697 
1.612673 
1.540507 
-0.032021 
-0.310326 
-0.377891 
-2.746957 
-0.682782 
-2.067607 
-0.305965 
-0.360752 
-1.621950 
-1.459095 
-1.054863 
0.538763 
1.476403 
-0.473673 
-0.114850 
1.200761 
-0.287947 
-1.158191 
-1.145885 
-0.047326 
-0.519327 
-0.400351 
-0.195428 
-0.197408 
0.005866 
-0.633833 
-0.897820 
-1.011689 
-1.697095 
-0.812345 
-1.097609 
-0.520604 
-0.630750 
-0.356640 
-1.088796 
0.141008 
1.565632 
0.853080 
-0.698586 
0.053989 
1.881891 
0.390104 
-1.241104 
-1.040692 
-1.171624 
-1.062379 
-0.793231 
-0.775775 
-0.221147 
-0.637924 
0.362388 
-0.176754 
-1.176573 
-1.279310 
-0.012512 
-0.663773 
1.360150 
0.246873 
-0.949776 
1.468021 
-1.090503 
0.582949 
1.692135 
0.940854 
-0.855042 
-1.222466 
-0.675404 
-0.516299 
-2.055796 
-0.142945 
0.497386 
-1.301037 
-0.874440 
-1.568112 
0.430971 
-1.522219 
1.011650 
-1.211463 
-0.226443 
0.120559 
-1.306259 
0.982939 
-1.409528 
-0.160322 
1.646258 
-2.772484 
-0.938193 
0.685857 
0.546309 
-1.260895 
-0.662782 
0.046929 
-0.486489 
-0.243257 
-1.513332 
-1.613288 
0.129696 
0.862041 
0.329921 
0.610042 
