-0.329653 
-0.196395 
-1.164888 
-1.218165 
-0.952344 
0.139589 
-3.831081 
-0.896955 
1.907082 
-0.770789 
-0.704884 
-0.905241 
0.901211 
-0.591367 
-1.710780 
-3.917732 
-0.711290 
1.878111 
0.167745 
-0.452588 
-2.356078 
-0.323341 
-0.050699 
-1.446888 
-3.660988 
-0.726421 
1.996489 
-1.230770 
-2.845062 
1.962336 
-2.436831 
1.489889 
-0.536541 
-1.506153 
-2.412534 
1.275208 
0.183865 
-0.392330 
-1.185039 
1.298104 
-1.347871 
-1.393706 
0.112572 
-0.787737 
-1.008328 
0.588215 
-1.145508 
-1.626207 
0.804828 
-1.646546 
-2.251773 
0.945566 
-1.447769 
-2.221298 
0.024486 
-2.228349 
-0.749517 
-0.210370 
-3.168975 
1.195903 
0.125774 
-2.144392 
-0.584817 
-0.296650 
-2.072788 
0.196031 
-1.529411 
0.702270 
-1.656288 
-0.254020 
-2.516056 
-0.063339 
-1.059190 
-2.100919 
-0.423321 
-0.446524 
-3.177812 
0.760949 
-0.848324 
-1.757735 
-0.357359 
-1.551987 
-1.789766 
1.555564 
0.758050 
-1.531147 
-2.033090 
1.040083 
-1.574329 
-1.331907 
0.701627 
-1.596256 
-0.231553 
-1.206165 
-1.767517 
1.787515 
0.164130 
-0.687599 
-1.462689 
0.854458 
-0.775110 
-2.225504 
0.525079 
-0.725883 
-2.195365 
-1.732089 
1.214932 
-0.979007 
-0.245877 
-1.660771 
-0.331581 
-0.636986 
0.510492 
-0.681737 
0.183173 
-2.446856 
0.495462 
0.207985 
-2.448475 
0.232269 
-0.440632 
-0.994046 
0.206444 
0.145678 
-2.783424 
1.159514 
-0.676152 
-0.101179 
-0.910903 
0.805392 
-1.419747 
-0.873880 
-0.664624 
-0.300163 
-0.833435 
-1.867230 
0.641745 
-0.153411 
-1.116423 
-1.254993 
0.452492 
0.575016 
-2.453813 
-0.500092 
-0.748345 
-1.070358 
-0.000180 
-0.361476 
-1.392060 
0.334617 
-0.341068 
-1.236350 
0.508546 
-0.799419 
-0.432616 
-0.406860 
-0.765346 
-1.357134 
0.603587 
-0.939440 
-2.460370 
0.510930 
-1.779927 
-1.803096 
1.769440 
0.275549 
0.069086 
-2.248240 
-1.500024 
-1.960519 
1.566932 
-0.078020 
-0.010707 
-2.014893 
-0.384435 
0.635000 
-2.724153 
-0.517315 
-0.190365 
-1.405936 
-0.930745 
-2.078475 
1.635639 
-0.250181 
0.151701 
-2.575130 
-1.876078 
-2.237852 
2.060363 
-2.416093 
-2.532201 
1.819911 
-0.468247 
-0.881297 
-0.998821 
0.110182 
-1.133337 
-1.955189 
-2.426576 
1.720763 
-1.552554 
0.193069 
-0.759705 
-1.311734 
0.423407 
-1.250088 
-1.651668 
-1.797842 
-2.219805 
2.209276 
-0.314283 
-1.072313 
-1.011749 
0.531632 
-0.816149 
-1.493849 
1.014802 
-3.060510 
0.462468 
0.005276 
-3.257902 
0.699355 
-0.390753 
-1.204152 
0.141643 
-0.787668 
-1.446473 
-0.589128 
-1.443165 
-2.167626 
0.027519 
-0.636506 
-1.480002 
-0.456761 
-0.802648 
-0.740449 
-0.200169 
0.713740 
-2.869143 
0.082155 
-0.023282 
-2.657795 
0.597814 
-4.873748 
0.144587 
3.368297 
-5.209104 
0.028838 
3.989343 
-4.792170 
-0.194607 
3.375828 
-5.209050 
-0.432023 
3.750168 
-4.129476 
0.476376 
3.162192 
-4.697126 
0.067357 
3.658822 
-4.615548 
0.029900 
3.624708 
-4.728108 
0.259326 
3.997870 
-4.971079 
-0.170421 
3.190549 
0.275993 
-1.562737 
-0.059574 
-0.802480 
-2.018014 
1.544167 
-0.641000 
-0.985135 
-0.390171 
0.154086 
-0.785105 
-1.675308 
-0.061535 
0.172758 
-1.397538 
0.410608 
0.387916 
-1.604847 
-0.014377 
-1.803745 
0.591808 
-0.720593 
-2.733723 
2.057992 
-0.066564 
-0.927432 
-0.912331 
-0.131367 
1.004689 
-2.337020 
-1.546707 
-0.879955 
0.432952 
-1.391744 
-0.565614 
0.803656 
-2.285560 
-0.864981 
0.326860 
0.567812 
0.841541 
-3.183055 
-1.372649 
-0.801208 
0.290145 
-2.098700 
-1.354962 
0.719937 
-1.491562 
-0.437398 
0.475248 
0.525662 
0.840269 
-2.969615 
-1.061451 
0.623847 
-1.936347 
-0.073165 
-0.138403 
-1.572387 
-1.189532 
0.575565 
-1.369996 
-1.625306 
-1.461866 
0.773222 
-1.872868 
-1.286314 
1.005240 
-1.423996 
-0.466737 
-0.993224 
-1.228156 
-1.231453 
1.155645 
0.051899 
-0.496397 
-1.999458 
-0.968668 
-0.618800 
0.563514 
1.012286 
-0.768317 
-2.464877 
0.969629 
-0.886707 
-2.503798 
1.092354 
-0.998604 
-2.454659 
-3.710569 
-0.914282 
2.503925 
-3.524934 
-1.130598 
1.814650 
-4.105806 
-0.451934 
2.266851 
1.213772 
-0.481094 
-2.493579 
1.053702 
-0.562516 
-2.062076 
0.952468 
-0.825568 
-3.017814 
0.852436 
-0.952314 
-2.217679 
0.714422 
-0.842209 
-1.549778 
-0.856711 
-1.989452 
1.738599 
1.162058 
-1.056502 
-1.763107 
-1.063891 
-1.667925 
0.894244 
1.213913 
-0.307301 
-1.754185 
-2.319588 
2.080056 
-1.668015 
0.276685 
-1.395779 
-1.078466 
0.550426 
-2.047637 
-0.780340 
0.658687 
-0.658086 
-1.461186 
0.795894 
-0.686114 
-2.200371 
-1.545017 
-0.905056 
0.319500 
-0.390931 
-0.477519 
-0.512121 
-1.179074 
0.454730 
-0.776223 
-0.658273 
-1.307860 
-0.014443 
-1.544766 
-0.431948 
-0.543867 
0.034209 
-0.228783 
-0.666007 
0.102191 
0.113861 
-2.336636 
0.971965 
-0.106510 
-2.518706 
-0.093022 
0.119307 
-2.289497 
0.884098 
-0.167846 
-2.639482 
-1.311501 
-0.084181 
-0.507543 
-1.841443 
-2.084744 
2.212942 
-1.850150 
-2.052885 
1.679822 
-0.289243 
-0.531483 
-0.652520 
-0.943774 
-1.972958 
1.073501 
-0.729557 
-1.504031 
0.470356 
0.497293 
-0.939573 
-0.457706 
0.696937 
-1.132142 
-0.344792 
-0.480159 
-2.196020 
-0.023847 
-1.903344 
0.368971 
-0.785609 
-0.577142 
-2.149897 
1.957036 
-0.959515 
-2.808160 
1.957691 
0.775846 
-0.362876 
-1.612956 
0.614513 
-0.699997 
-1.874527 
-0.158086 
0.044977 
-1.766878 
0.358658 
-0.854316 
-2.678135 
-2.739215 
-2.122545 
3.007956 
0.387787 
-0.775868 
-1.215717 
-0.190319 
-0.849695 
-1.293801 
-3.077672 
-1.703120 
1.616979 
-0.367446 
-0.856749 
-0.559606 
-0.332141 
-0.958563 
-1.673109 
-3.963730 
0.593619 
1.296296 
0.041956 
-0.831491 
-1.424284 
0.227187 
-1.576475 
-0.680684 
0.898537 
-0.986732 
-1.641795 
-0.795806 
-0.474235 
-0.459972 
-0.727424 
-2.424363 
1.351813 
-0.268899 
-0.273557 
-1.387550 
-0.378901 
-3.034490 
1.793391 
0.561759 
-1.949931 
0.168194 
0.705215 
0.142007 
-2.047237 
0.052891 
-1.399221 
0.516340 
-2.626258 
-1.073100 
1.285974 
-0.473046 
1.899280 
-2.789615 
-2.430637 
-0.750815 
0.888087 
-2.048077 
-0.476164 
0.710880 
-2.344558 
-0.789279 
1.050439 
-1.531768 
0.214525 
-1.076142 
-0.689791 
0.720545 
-2.854141 
-2.504206 
-0.987636 
1.478443 
-1.847494 
0.322673 
-0.748540 
-2.554455 
-0.732650 
1.544823 
0.722324 
-0.884306 
-2.370303 
0.766777 
-0.390570 
-2.078488 
-2.652842 
-2.161583 
2.592130 
0.439711 
-1.236703 
-2.185288 
-0.383052 
-1.170582 
-1.658647 
-2.933523 
-0.515395 
1.316644 
0.827647 
0.155558 
-2.305462 
0.758816 
-1.040065 
-2.111033 
-0.241526 
-2.142655 
-0.206260 
0.372961 
-3.377942 
0.794546 
-0.107476 
-1.852450 
0.249471 
-0.122583 
-2.612594 
0.154723 
1.124318 
-3.605987 
0.781244 
-0.097694 
-3.315833 
0.433053 
0.159532 
-1.958107 
-0.451864 
-0.430937 
-1.315372 
-0.104130 
0.309736 
-1.797504 
0.057317 
0.424755 
-0.791839 
-1.548014 
0.244871 
-1.706870 
0.196890 
-0.338284 
-2.352275 
0.505476 
-0.650483 
-1.782289 
-0.472332 
-0.162877 
-1.718490 
-0.463729 
-1.919079 
1.153022 
-1.269040 
-0.245180 
-1.403773 
-0.706155 
-0.460309 
-0.134700 
-0.340109 
-0.765966 
-2.400625 
0.951492 
-0.699295 
-1.340366 
-0.131917 
-0.201861 
-0.867789 
-1.031893 
-0.539331 
-1.053629 
0.261406 
-0.181593 
-1.078537 
-1.121415 
-2.057836 
1.388445 
-1.412162 
-0.501086 
-1.046429 
-0.804034 
-0.362104 
-0.991003 
0.111557 
-0.492300 
-1.177928 
-0.481322 
-0.876628 
-1.224190 
-0.010729 
0.653576 
-0.755190 
-1.518475 
0.988131 
-1.107008 
-1.881223 
-0.037145 
-1.372327 
-1.170622 
0.140705 
-1.186272 
-1.514502 
0.696883 
-1.088084 
-1.278896 
-0.042378 
-1.636661 
-0.611039 
-1.748353 
-1.197569 
1.145835 
-1.305011 
-2.890541 
1.715466 
-2.869672 
2.071774 
-1.362186 
4.781234 
-1.192734 
-4.801078 
4.586963 
-1.051978 
-5.047569 
4.659626 
-0.696706 
-4.735481 
4.207151 
-0.892621 
-5.037115 
4.678672 
-0.856084 
-4.295188 
4.404131 
-0.869473 
-5.237250 
4.517027 
-0.891234 
-4.618350 
4.573118 
-0.617512 
-4.908204 
4.359944 
-0.945427 
-4.997078 
-0.539473 
0.341355 
-1.955926 
-0.804936 
-0.997030 
-1.262066 
0.399285 
-1.580698 
-0.712629 
0.633827 
-0.662048 
-0.875814 
-0.167262 
-0.605734 
-0.761039 
0.335353 
-0.346099 
-2.483288 
0.937643 
-0.982340 
-1.569335 
0.310773 
-0.969933 
-0.934875 
-0.155231 
-1.623160 
0.014356 
-0.747009 
-1.238026 
-0.811374 
0.037299 
-0.438049 
-0.665655 
0.587561 
-1.840841 
-0.403111 
-0.066052 
-2.986172 
0.845809 
-0.256934 
-2.413784 
0.144308 
-0.072457 
-1.922720 
-0.351237 
0.883367 
-3.755011 
1.365196 
0.511325 
-2.789312 
0.661603 
-0.568268 
-1.469065 
-0.109079 
-2.696421 
-0.854555 
2.294266 
-0.935139 
-1.228241 
0.136686 
-0.282524 
0.169384 
-1.493511 
-1.964130 
-0.541963 
1.269391 
0.227959 
-1.771070 
-0.093574 
-0.448271 
-0.096471 
-1.531944 
-1.568324 
-0.872813 
0.974440 
-0.583742 
-1.176233 
-0.456715 
0.050699 
0.319190 
-2.216569 
-2.602175 
0.473162 
-0.817261 
-1.421707 
-2.329355 
1.624731 
-2.560407 
-0.496307 
1.360389 
0.551173 
-0.689227 
-1.898249 
-0.161697 
-1.450702 
-0.623927 
0.598044 
-1.270497 
-1.733840 
0.855257 
-0.669547 
-1.822034 
0.736763 
-0.639039 
-1.364050 
0.105483 
-1.059715 
-1.512079 
-0.723673 
-1.247674 
-0.303822 
-2.721546 
0.493561 
0.252823 
-0.815831 
-0.782741 
-0.536591 
0.403323 
-1.150639 
-1.937854 
-1.964764 
-0.133385 
0.352976 
-0.237991 
-0.380558 
-0.886614 
-0.701169 
-1.479470 
-0.464520 
-1.332693 
-2.149864 
1.997408 
0.567622 
0.080919 
-2.473691 
-1.605702 
0.903218 
-0.257670 
-0.404359 
-0.872525 
-0.963289 
0.576308 
-1.064772 
-2.571668 
-0.524231 
-0.706121 
-1.009794 
-2.377221 
-0.522410 
1.169474 
-0.307048 
-0.409467 
-0.743635 
0.166193 
-1.401791 
-1.014556 
-0.437850 
1.119106 
-2.281405 
-1.637878 
-1.612783 
2.110502 
-1.707636 
-0.913430 
0.799305 
-1.779585 
-0.794243 
1.342044 
-2.404484 
1.345143 
-0.762425 
-0.564699 
0.299631 
-1.436713 
-1.912191 
-1.313809 
0.744238 
-1.874457 
-1.572907 
2.205566 
-1.822558 
-1.318287 
1.489047 
-1.325919 
-0.130039 
-0.825819 
-1.975836 
-0.234988 
0.679035 
-0.984056 
0.002426 
-1.571248 
0.296614 
-0.865670 
-0.713814 
-0.260131 
-0.751571 
-0.521172 
-0.147869 
-0.220717 
-1.154290 
-0.707396 
-1.860887 
0.385385 
-0.683049 
-0.827729 
-0.402092 
-0.554124 
0.519659 
-1.508407 
-0.565389 
-1.693549 
0.056035 
-0.678364 
-1.257903 
0.973376 
-2.852255 
-0.603789 
1.731981 
-3.082339 
-0.991895 
0.940148 
0.186881 
1.622253 
-3.643200 
-2.986738 
-0.898094 
0.740736 
0.402713 
1.532531 
-4.419307 
-2.673981 
-1.016442 
1.246323 
0.030669 
1.661394 
-4.156122 
-2.992275 
-1.270376 
1.008567 
-2.952261 
-1.059903 
1.758073 
0.155923 
-0.955754 
-1.578160 
0.578189 
-1.110893 
-0.785293 
-1.571143 
1.016055 
-0.292908 
-0.256018 
-0.979754 
-0.482246 
-0.706157 
-1.733953 
-0.277873 
-1.365246 
-0.606436 
0.283661 
-1.013358 
-1.403411 
1.008785 
-0.229420 
-0.421483 
-1.027107 
-0.888843 
-2.490803 
1.221694 
-0.451364 
0.093518 
-0.928581 
0.168063 
-1.611095 
0.256615 
0.734522 
-1.335048 
0.104089 
-0.067780 
-1.888563 
0.069939 
-0.400591 
-0.618357 
-0.847474 
-1.656889 
-0.223401 
-0.396142 
-0.620933 
-0.507875 
-0.227612 
-0.517554 
-1.934718 
-0.124158 
-0.382205 
-0.845453 
-0.758763 
0.046935 
-1.148456 
-2.066774 
-0.685550 
-0.929409 
-1.843353 
0.734854 
-0.563411 
-1.469739 
0.039439 
-0.128682 
-1.539055 
0.814149 
-0.278195 
-2.044252 
0.076896 
-0.964991 
-1.510200 
-3.352982 
-1.500119 
2.144783 
-4.380051 
-0.449440 
2.401153 
-3.504086 
-0.951250 
2.687022 
-0.585560 
-1.799299 
1.017876 
-1.596992 
-1.307463 
1.587441 
-0.427329 
1.312530 
-1.992213 
-0.484535 
-1.415662 
0.773182 
-2.012899 
-2.121676 
1.677550 
0.084510 
0.066836 
-2.678360 
-0.325140 
-1.070078 
0.738209 
-0.670141 
-0.364068 
-0.422804 
0.949103 
-0.634685 
-2.821419 
-1.414211 
-1.521661 
1.156338 
-0.965826 
-0.040306 
-0.473385 
-1.158947 
