-0.369470 
0.202561 
-0.816236 
-0.901016 
-1.065971 
0.643826 
-1.703746 
-1.187490 
0.778080 
-1.316387 
-1.030233 
0.673481 
0.599119 
-0.873594 
-0.418668 
-2.437938 
-0.298849 
0.693660 
-0.081264 
-0.768213 
-1.083664 
-0.615466 
-0.472714 
-0.024963 
-2.369884 
-0.641848 
1.328591 
-0.972084 
-2.576883 
1.411233 
-1.704894 
1.251513 
-1.054336 
-1.418561 
-2.321107 
1.071919 
0.326581 
-1.023537 
-0.720782 
0.547973 
-1.133946 
-0.881769 
-0.008678 
-0.693755 
-1.005308 
0.657893 
-0.994608 
-1.871019 
-0.344055 
-1.713538 
-1.060143 
0.436198 
-1.823794 
-1.360136 
0.738236 
-0.973864 
-1.710424 
0.120932 
-1.790300 
0.493301 
-0.534097 
-1.599689 
0.537740 
-0.170629 
-1.454333 
0.458901 
-0.503786 
1.270579 
-2.242841 
-0.876067 
-1.463269 
0.513289 
-0.995343 
-1.887667 
0.306966 
-0.680407 
-1.537302 
0.361663 
0.341018 
-0.331586 
-1.965482 
-1.595212 
-1.071499 
1.284834 
0.290908 
-0.917856 
-1.774939 
0.917221 
-0.656944 
-1.722159 
0.311448 
-0.739738 
-0.293590 
-1.468618 
-0.807863 
1.494601 
-0.290386 
-0.207590 
-1.083917 
0.577033 
-0.451818 
-1.867097 
-0.133713 
-0.728266 
-1.129897 
-1.552839 
-0.322381 
0.783326 
0.069613 
-1.931126 
-0.083731 
0.083603 
0.523177 
-1.122027 
-0.167209 
-1.979307 
0.671271 
0.384600 
-1.769964 
-0.329886 
-0.698133 
-0.670481 
0.433373 
1.061767 
-2.145621 
-0.101388 
-0.644474 
0.185657 
-0.936439 
0.512113 
-1.167102 
-0.540255 
0.053785 
-0.603137 
-0.955891 
-2.170774 
0.073732 
0.815538 
-0.435838 
-1.187006 
-0.198658 
0.727103 
-1.841817 
-1.166785 
-2.008495 
-1.005691 
1.292685 
0.732376 
-1.301656 
-0.752221 
-0.067928 
-0.779584 
-0.123991 
-1.979817 
-1.253483 
1.691797 
-0.273389 
-0.643383 
-0.504732 
-0.601921 
-1.790522 
-0.399062 
-0.475502 
-2.151575 
1.659419 
0.817206 
-0.756461 
-1.118400 
0.006307 
-2.417981 
1.364004 
-0.219237 
0.204547 
-1.242973 
0.018976 
0.312824 
-1.959459 
-0.128751 
-0.072287 
-1.066615 
-0.711982 
-1.922878 
2.107198 
-0.119068 
-0.641857 
-1.066746 
-0.681559 
-2.133017 
1.606919 
-1.913729 
-2.396132 
1.493744 
-0.347064 
-1.024744 
-0.664302 
-0.551763 
-1.206056 
-0.908301 
-0.744528 
0.728877 
-1.930472 
0.143434 
-0.472089 
-1.237460 
0.078271 
-1.157388 
-1.086994 
-1.171144 
-1.644125 
1.319148 
-0.466328 
-1.154157 
-0.465634 
0.393851 
-1.051585 
-0.808382 
0.737414 
-2.059660 
0.044620 
0.604412 
-2.442607 
-0.409444 
-0.470753 
-1.262909 
0.586017 
-0.791064 
-1.490247 
-0.236329 
-0.804394 
-2.269562 
-0.203673 
-0.361654 
-1.000530 
-0.905454 
-1.422075 
0.926670 
-0.942239 
0.055483 
-2.136487 
0.313377 
-0.028006 
-2.068913 
0.319292 
-2.135304 
-0.461288 
1.710773 
-2.351938 
-0.128297 
1.764400 
-2.151771 
-0.388467 
1.404423 
-2.365791 
-0.348084 
1.298055 
-2.101176 
0.087960 
1.997398 
-1.989039 
0.014775 
1.478432 
-2.158481 
0.128470 
1.544192 
-1.910831 
0.341928 
1.573079 
-2.252808 
-0.637989 
1.414969 
0.446290 
-1.689395 
-0.164975 
0.253542 
-1.444699 
-0.146933 
-1.569794 
-1.816473 
1.308186 
-0.350505 
-1.367824 
-0.649753 
0.330108 
0.316221 
-1.994425 
-0.719874 
-0.032821 
-0.115389 
0.610337 
-1.499887 
-0.398537 
-0.019081 
-1.315790 
-0.123221 
-0.958858 
-1.383429 
0.374202 
0.138511 
0.205215 
-1.413198 
-0.596593 
-0.994051 
-0.008827 
-0.279706 
-0.653398 
0.173630 
-1.401291 
-0.643677 
-0.384496 
1.184623 
-0.272061 
-2.292040 
-0.484454 
-0.875151 
-0.129861 
-1.003179 
-1.120148 
-0.216147 
-0.299492 
-0.597855 
-0.162124 
0.854456 
0.233841 
-2.297766 
-0.318611 
-0.302328 
-1.095118 
-0.433497 
-0.094943 
-0.597616 
-1.066725 
0.093400 
-0.352736 
-0.090398 
-1.147216 
-0.418443 
-1.264929 
-0.903766 
0.672634 
-1.072692 
-0.336328 
-0.817022 
-0.747685 
-0.953588 
1.055219 
0.308786 
-0.757547 
-1.337289 
0.103729 
-0.281018 
-0.188769 
0.352292 
-0.614301 
-1.748804 
0.174748 
-1.089464 
-1.296108 
0.610586 
-0.874968 
-1.886442 
-2.697492 
-0.872874 
1.659522 
-2.187627 
-1.581795 
1.138607 
-2.446341 
-0.924092 
1.289619 
1.121872 
-0.505153 
-2.167538 
0.479300 
-0.929612 
-0.910512 
1.013855 
-0.874012 
-2.820672 
0.005964 
-1.000829 
-0.944007 
0.887857 
-0.148752 
-2.037966 
0.066313 
-0.875470 
0.080296 
-0.099520 
-1.151019 
-0.028325 
0.333314 
-0.990561 
-0.801620 
0.739096 
0.264809 
-1.472772 
-0.556448 
1.449118 
-2.421524 
-1.027142 
-1.084146 
0.292433 
-0.026693 
-1.319623 
-0.552547 
0.805461 
-0.273407 
-1.207353 
0.914167 
-0.334476 
-1.884983 
-0.749170 
-0.508715 
-0.087408 
-0.294664 
0.264162 
-0.564788 
-0.353378 
0.195549 
-0.557465 
-0.259568 
-0.637030 
-0.298698 
-0.610435 
-0.034756 
-1.090101 
0.271110 
0.051705 
-0.398106 
0.251198 
-0.159769 
-1.426715 
1.304958 
-0.411315 
-2.301031 
0.436137 
-0.354556 
-2.098957 
0.516302 
-0.065287 
-2.128403 
-0.954046 
-0.113885 
-0.589442 
-2.119296 
-2.193243 
2.845153 
-1.499408 
-1.667627 
1.189665 
0.131112 
-1.025229 
-0.333263 
-0.519019 
-1.698290 
0.619930 
-0.412427 
-1.539272 
0.434319 
0.149552 
-1.335625 
0.078828 
0.480422 
-1.268108 
-0.199560 
-0.620262 
-2.587455 
0.300473 
-1.223430 
0.025918 
-1.329737 
-0.502848 
-2.117254 
1.642845 
-1.102781 
-2.630380 
1.715909 
0.818041 
-0.832570 
-1.392719 
0.400429 
-0.963114 
-1.604566 
-0.193143 
0.141083 
-2.035201 
0.120090 
-1.018993 
-1.854966 
-2.105886 
-1.322907 
1.994925 
0.795485 
-0.397222 
-1.582133 
-0.653293 
-0.403570 
-0.857011 
-2.096492 
-2.059574 
1.412193 
-0.595061 
-0.910756 
0.141943 
-0.395047 
-0.549586 
-1.599236 
-2.603027 
-0.256663 
1.205813 
-0.347493 
-0.524927 
-0.921450 
-0.107524 
-1.363579 
-0.477009 
0.572680 
-1.207963 
-1.012822 
-0.863491 
-0.025262 
-0.759355 
-0.242447 
-1.817679 
0.342016 
0.119162 
-0.279594 
-1.687679 
-0.656488 
-2.011985 
1.130370 
0.125357 
-1.270292 
0.006826 
0.312656 
0.080481 
-1.511246 
-0.560558 
-1.612255 
1.424704 
-0.932630 
-1.353922 
0.472461 
0.181984 
1.952646 
-2.898713 
-0.843686 
-1.030352 
0.179945 
-0.674062 
-0.804589 
0.264551 
-0.569662 
-1.271950 
0.357517 
-0.846804 
-0.226258 
-0.721037 
0.324361 
-0.513970 
-2.034495 
-1.094336 
-1.603378 
1.283629 
-0.214411 
-0.017733 
-1.441952 
-0.165915 
-0.505376 
-0.317770 
0.336642 
-0.809427 
-1.306273 
-0.193261 
-0.102164 
-0.653631 
-1.348358 
-1.095967 
0.975264 
-0.214907 
-0.218490 
-1.795659 
-0.607121 
-1.127385 
-0.724553 
-0.892048 
-1.030117 
0.543104 
0.208284 
0.266583 
-1.043933 
-0.201581 
-0.745569 
-0.691910 
-0.316390 
-1.255352 
-0.443596 
-0.133030 
-1.821544 
0.319243 
-0.343989 
-1.036279 
0.244938 
-0.121304 
-1.630444 
-0.253586 
1.196985 
-2.398796 
0.076481 
-1.147853 
-1.789902 
0.532408 
-0.183891 
-0.762725 
-0.728711 
-0.429061 
-0.997471 
0.151185 
-0.258170 
-0.886159 
0.288993 
1.163346 
0.129440 
-2.730285 
-0.300001 
-1.545583 
1.058084 
-0.265816 
-1.893825 
0.452136 
0.219349 
-1.623339 
-1.023505 
-0.364653 
-2.141172 
0.638345 
-0.187040 
0.282857 
-1.653316 
0.792979 
-0.857995 
-1.812495 
-0.296559 
0.461537 
-0.622475 
-0.540737 
-1.623787 
0.427024 
-0.164936 
-1.792434 
-0.008962 
-0.357929 
-1.639384 
0.100971 
0.228374 
-1.098608 
-0.256103 
-0.172660 
-1.060897 
-0.942772 
-2.301144 
1.608104 
-1.183292 
-0.133118 
-0.950029 
-1.063199 
0.121619 
-0.870856 
-0.287098 
-0.781459 
-1.524680 
0.359808 
-0.739987 
-1.402648 
0.236308 
0.885468 
-1.018251 
-1.099857 
0.825801 
-0.677602 
-1.760843 
-0.022420 
-1.135124 
-1.035104 
0.269642 
-1.222937 
-1.219355 
0.857680 
-1.262034 
-0.878291 
-0.529222 
-1.414163 
0.040740 
-0.932159 
-0.796647 
0.316163 
-1.294435 
-2.059616 
1.261391 
-2.112211 
1.235542 
-0.895956 
1.106101 
-0.521908 
-1.389446 
0.953593 
-0.706219 
-1.352625 
1.721473 
0.591700 
-2.678441 
1.432348 
0.526680 
-3.274285 
1.381802 
-0.194170 
-1.252890 
0.560919 
-0.877205 
-0.978968 
0.773486 
-0.652534 
-0.706206 
1.491155 
0.132669 
-2.169079 
1.509305 
-0.582150 
-2.102408 
0.659012 
0.301977 
-2.247195 
-0.250907 
-0.581099 
-1.364210 
0.407628 
-0.673931 
-0.759912 
0.456058 
-0.651398 
0.159126 
0.863471 
-0.100858 
-1.428831 
1.039554 
0.143276 
-2.809049 
1.234216 
-0.270517 
-1.709924 
1.078925 
-0.303973 
-1.501177 
0.398163 
-0.429984 
-0.864396 
-2.337265 
0.327303 
-0.574182 
-0.247618 
-0.781467 
0.174953 
0.536561 
-1.697240 
-0.283445 
-0.302381 
-1.903848 
0.212102 
-0.506551 
-2.083617 
0.276045 
0.556286 
-1.795154 
-0.895259 
1.209793 
-2.887054 
0.383128 
0.421289 
-1.887331 
0.061906 
-1.007998 
-1.417262 
0.491139 
-1.481488 
-1.536888 
1.896401 
-0.558018 
-1.510315 
0.176372 
0.136673 
-0.083693 
-1.524947 
-0.839052 
0.185682 
-0.448597 
0.186383 
-1.386151 
-0.302207 
-0.232848 
-0.858277 
-0.850840 
-1.221489 
-1.354548 
1.244070 
-0.191805 
-1.521155 
-0.369007 
0.159814 
0.184424 
-2.056205 
-1.446547 
0.620444 
-1.220378 
-0.680010 
-1.381939 
0.835462 
-1.522093 
0.340160 
0.385459 
0.925152 
-1.144856 
-0.916785 
-0.233797 
-1.584257 
0.481562 
0.924343 
-1.542518 
-0.888317 
0.455777 
-1.010318 
-0.181933 
1.106591 
-0.698572 
-0.774497 
0.351118 
-1.564601 
-0.353001 
-0.038378 
-1.140849 
-0.481865 
-1.205276 
0.433955 
-0.589771 
-0.709868 
-0.947540 
0.136308 
0.187899 
-0.859930 
-1.399070 
0.017089 
0.035025 
-1.183220 
-0.049248 
-0.472068 
-0.369783 
0.000019 
-1.377203 
-0.653915 
-0.916603 
-0.895593 
0.941096 
0.649413 
0.606076 
-2.466597 
0.364372 
0.230527 
-1.275713 
-0.952762 
-1.086029 
0.077989 
0.205234 
-0.953593 
-2.032458 
-0.671466 
-0.792371 
-0.496976 
-0.642106 
-1.051702 
0.243001 
-0.135708 
-0.673648 
-0.371458 
-0.518686 
-0.885082 
-0.567051 
-0.218465 
1.286411 
-2.388761 
-0.611103 
-1.143596 
0.893889 
-0.868956 
-0.439968 
-0.281557 
-0.777433 
-0.413529 
0.190484 
-1.457060 
0.134835 
-0.268256 
-0.569755 
-0.258914 
-0.641812 
-1.339686 
-1.059649 
0.148864 
-1.192756 
-0.741085 
0.923370 
-1.439979 
-0.702617 
0.722114 
-1.430508 
-0.689293 
0.069326 
-1.514881 
0.124685 
0.089720 
-0.737893 
-0.342649 
-1.209041 
-0.152904 
-0.564131 
-0.302552 
-0.036940 
-0.694531 
-0.538114 
-0.452512 
-0.244686 
-0.562384 
-0.530144 
-1.280169 
-0.109287 
-0.208028 
-0.755323 
-0.686239 
-0.796773 
0.417263 
-0.900081 
-0.519052 
-1.280861 
-0.139670 
-0.587844 
-0.586721 
0.474971 
-1.359203 
-0.762122 
1.347959 
-1.553591 
-1.292921 
0.663137 
1.516780 
0.997504 
-3.397661 
-1.383066 
-1.296445 
0.486144 
1.306242 
0.417089 
-3.256711 
-1.127670 
-0.808826 
0.443122 
1.065401 
0.166785 
-2.745551 
-1.158988 
-1.027544 
-0.116842 
-1.145683 
-0.952044 
0.794361 
-0.011283 
-1.331610 
-1.032209 
0.201155 
-1.308840 
-0.207430 
-1.878658 
0.491694 
0.541858 
-0.019235 
-1.149000 
-0.546868 
0.147991 
-1.730811 
-1.132279 
-1.971538 
-0.151681 
0.438116 
-0.183861 
-1.093059 
-0.128179 
0.314235 
-0.965587 
-1.023746 
-0.853084 
-2.238806 
0.936802 
-0.258786 
0.290480 
-0.902160 
0.105844 
-0.913038 
0.036730 
0.984981 
-0.891622 
-0.173827 
-0.429590 
-1.070608 
0.029731 
-0.369529 
-0.358931 
-0.722008 
-0.906459 
-0.159141 
-0.794869 
-0.474283 
-0.284418 
-0.181761 
-0.254533 
-1.276522 
-0.629418 
-0.164931 
-0.841955 
-0.563584 
0.159820 
-1.944767 
-1.200565 
-0.906738 
-1.752557 
-0.616207 
0.706727 
-1.278207 
-0.544018 
0.095830 
-0.892044 
-0.649292 
0.771368 
-1.106478 
-0.990397 
0.204048 
-1.404532 
-1.015029 
-1.215798 
-2.345489 
1.035783 
-2.542639 
0.072613 
0.224522 
-1.847095 
-0.581738 
0.843320 
0.324850 
-2.088243 
0.615850 
-1.097504 
-1.497975 
1.497936 
-0.053022 
0.819063 
-1.653585 
0.255205 
-1.401796 
0.239045 
-1.553839 
-2.621190 
1.937482 
0.302853 
-0.547929 
-2.062451 
0.163541 
-1.205474 
0.604391 
-0.301686 
-0.430518 
-0.505341 
0.832967 
-0.781243 
-2.339268 
-0.409289 
-1.163347 
0.302645 
0.290090 
-0.725062 
-0.535016 
-0.667350 
-0.555180 
-0.672974 
-0.537641 
