-0.167967 
-0.313357 
0.724130 
0.648171 
-0.543351 
1.126117 
-1.086878 
-0.197471 
-0.920392 
-1.444440 
-0.215913 
0.968034 
-0.061014 
-1.340742 
-0.710048 
-0.967456 
0.996879 
-0.493884 
-0.660190 
-0.473542 
-1.333904 
0.875633 
1.048328 
0.681380 
-0.532055 
-0.982239 
-1.928579 
-0.411658 
2.061991 
0.005560 
0.995303 
-0.146827 
0.488346 
-0.975030 
0.334662 
-1.562865 
-0.592133 
0.311964 
-1.004383 
-1.788898 
0.200968 
-0.654942 
2.261131 
-0.692120 
-0.886905 
0.734911 
-0.009588 
0.751510 
0.118500 
-1.013696 
-1.208207 
0.018674 
-0.381024 
-0.512273 
-0.649965 
-0.451183 
-1.365625 
1.393927 
-0.992875 
0.915116 
0.283276 
0.700846 
-0.134954 
-0.306475 
-0.484234 
-0.989038 
-0.378775 
-0.728458 
-0.464328 
0.352981 
-0.667838 
-0.846704 
0.191968 
-0.859526 
-0.753388 
-0.357593 
-0.879212 
-0.278525 
-0.231707 
-0.509062 
0.027614 
-0.424113 
-0.106163 
0.317727 
-0.527747 
-1.356645 
-0.710141 
-1.437797 
-1.126178 
0.383826 
0.393732 
-1.219677 
0.486118 
-0.797330 
0.589885 
-1.289220 
-0.939029 
-0.146101 
1.342358 
-1.070475 
-1.615849 
1.311316 
-1.431395 
-0.557100 
0.865738 
-1.209541 
-0.480056 
-0.295886 
-0.360275 
-1.407705 
-0.117149 
0.281694 
0.606310 
-0.412682 
-0.308658 
-0.001911 
-0.358714 
1.237036 
1.187408 
-0.721854 
-1.022037 
1.941869 
0.831406 
-0.260857 
-0.857597 
-0.798803 
-1.332742 
-1.126442 
0.466411 
0.580720 
1.779564 
0.385761 
-0.894948 
-0.153128 
-0.382480 
-0.745646 
0.763787 
-0.670607 
-0.945752 
1.115562 
1.493290 
-0.013344 
-1.040001 
-0.415304 
-0.302140 
0.040607 
-0.112771 
-0.796592 
-0.695933 
-0.355872 
-0.897814 
-0.427087 
0.901710 
-0.748120 
-0.650478 
-0.103327 
-0.686950 
-0.167912 
-0.640299 
-0.662552 
-1.202829 
-0.405911 
-0.909225 
0.067473 
-1.327715 
-1.388736 
1.923753 
0.784371 
0.379644 
-1.485620 
1.464077 
0.136440 
0.054887 
-1.202667 
0.442944 
0.248550 
0.397759 
1.321071 
-0.707599 
0.040130 
-0.633012 
-0.797900 
0.665928 
0.644479 
-1.374921 
0.035826 
-0.798881 
-1.088692 
1.105057 
-1.214164 
-1.659693 
-1.192054 
0.392035 
-1.790595 
-0.451264 
0.225946 
-1.000761 
-0.570158 
-0.229114 
1.212511 
-0.757494 
-0.002784 
-0.070899 
-0.353536 
0.241752 
0.478311 
-0.179163 
-0.729632 
-0.081662 
-1.291755 
-0.265426 
0.553205 
-0.409974 
0.423381 
-0.800611 
0.713361 
-0.446367 
-0.115717 
1.713362 
0.275052 
-0.850630 
-0.355335 
-0.724579 
-1.177749 
-0.907173 
0.214530 
-1.028041 
0.277063 
0.863812 
-0.430798 
-0.307749 
-1.200293 
-0.155123 
-0.234598 
-0.059809 
-1.364271 
-0.985226 
-0.476233 
-0.815703 
-0.314031 
-1.094249 
0.828121 
0.393417 
-0.545228 
0.929591 
-1.455444 
-1.180060 
-0.089398 
-0.129197 
-0.669028 
0.981723 
0.619784 
-0.634029 
-0.860920 
1.743160 
-0.755478 
-1.686874 
-1.079606 
0.113163 
-1.189253 
0.889207 
0.144176 
-0.384098 
0.692005 
-0.488470 
-0.499414 
-0.235401 
0.098435 
1.035784 
0.573235 
-0.181789 
0.043048 
-1.495353 
-0.913887 
-1.599996 
-0.119422 
0.073883 
-1.291314 
-1.086750 
-0.217242 
0.419261 
1.133883 
-0.512779 
0.014329 
-0.096697 
-0.179488 
-0.911097 
-0.712047 
0.090479 
-0.592680 
-0.641928 
-0.404562 
-0.137931 
0.572522 
-0.624584 
-0.367014 
-0.417342 
-0.921955 
-0.898402 
-1.067217 
-0.381334 
-0.638432 
-0.579681 
-1.193373 
0.373219 
0.980546 
0.813242 
-0.044185 
0.456592 
0.604793 
0.633762 
-1.254841 
-0.782472 
-0.515035 
-0.867732 
-0.881546 
-1.154916 
-0.577997 
-0.729404 
0.626119 
-0.645999 
-0.810097 
-0.906758 
-0.190880 
-0.732364 
1.458206 
0.601205 
-0.750040 
0.972702 
-0.856259 
0.516322 
1.248002 
0.118872 
-0.878173 
-0.984522 
-1.042247 
-0.425638 
-1.168806 
0.291495 
0.288296 
-0.562121 
-0.815932 
-1.434605 
-0.036098 
-1.706264 
1.358125 
-0.820256 
-0.217415 
-0.069295 
-0.439305 
0.826166 
-1.405409 
-0.496383 
1.876366 
-1.046908 
-1.038415 
0.720137 
0.487625 
-1.143085 
0.011883 
-0.298163 
0.168508 
-0.126349 
-1.633612 
-0.631484 
0.008548 
1.080770 
0.560677 
0.502890 
